{"layers":[{"id":"input","create":[9]},{"id":"fc","create":[32,{"activation":"logistic"}],"weights":[-0.07534191012382507,-1.450016736984253,0.6324275732040405,0.6971560716629028,2.2720894813537598,-1.5502127408981323,0.27633729577064514,-1.7370264530181885,1.1480224132537842,1.1880838871002197,-0.41154617071151733,-0.08043090254068375,0.6040116548538208,-1.5279592275619507,-0.23191794753074646,-2.0301294326782227,1.7343865633010864,-1.5867424011230469,-1.5332870483398438,-1.3579131364822388,-0.13154178857803345,-0.2646369934082031,0.7735413908958435,0.8315607309341431,-0.03369620814919472,0.06442943215370178,-0.12587863206863403,0.34324148297309875,1.9790234565734863,0.7135202288627625,1.979002833366394,3.0421276092529297,-1.2769898176193237,1.0409358739852905,2.6507925987243652,-1.4380950927734375,1.711794137954712,0.09347912669181824,-0.06609918922185898,-0.15559406578540802,-0.1446046382188797,-1.1093509197235107,-0.4496478736400604,1.4779026508331299,0.26428845524787903,-0.8553656339645386,-1.672948956489563,0.3281068503856659,0.3389299213886261,-2.645359516143799,-0.6552248597145081,-0.04133043810725212,-0.439831405878067,-0.3589203357696533,1.8554834127426147,-0.23891717195510864,-0.3819490075111389,-0.7351636290550232,0.47672954201698303,-0.5777075290679932,0.6412956118583679,-0.3515963852405548,0.8709417581558228,0.4412539005279541,-1.5582797527313232,-0.08278221637010574,0.22544048726558685,-1.7953128814697266,-1.4655729532241821,0.02467801421880722,-1.7375341653823853,0.004096021875739098,1.1204980611801147,-0.12260061502456665,-1.0230644941329956,-0.654033899307251,1.6866530179977417,-1.7218728065490723,-0.6822348833084106,-0.02585701271891594,1.3073418140411377,-1.3978885412216187,-0.9069227576255798,1.3393135070800781,-1.152461051940918,-1.840428352355957,1.60222589969635,-1.1390111446380615,0.6050471663475037,-1.0815610885620117,2.126532554626465,-1.3556239604949951,0.9792017340660095,-0.940315842628479,1.7262516021728516,0.3886058032512665,-0.13858510553836823,-0.6769382953643799,-0.15977679193019867,0.23558452725410461,0.7598917484283447,-0.7700707316398621,-0.38238924741744995,2.087991952896118,-1.2446386814117432,1.348803997039795,-0.18236635625362396,0.29619160294532776,1.553763747215271,1.0352548360824585,0.7208672761917114,0.1647995412349701,1.9137464761734009,0.12515155971050262,-0.5882136225700378,-0.9879911541938782,-1.6300920248031616,0.32060956954956055,-0.9177424907684326,1.4019612073898315,-1.6454459428787231,1.7718405723571777,1.1001590490341187,0.18662473559379578,-1.067846417427063,0.8689287900924683,2.0816664695739746,-0.8174998164176941,-0.05851517990231514,1.2093225717544556,-0.6827639937400818,-2.0536880493164062,1.5675634145736694,1.3008899688720703,-1.7092461585998535,0.1420382708311081,1.4863733053207397,0.40025991201400757,-0.2842302918434143,1.0374268293380737,-0.6525961756706238,0.31892916560173035,-1.2756716012954712,2.0051517486572266,1.7657973766326904,0.4740391969680786,-0.2787909507751465,-1.4806709289550781,-0.2614266276359558,-1.8057197332382202,1.9102685451507568,0.17064355313777924,1.8141175508499146,0.9679133892059326,0.6969148516654968,1.8106635808944702,1.781800627708435,2.4914753437042236,1.9713354110717773,0.6012927293777466,-0.9614887833595276,1.3979246616363525,0.3105204701423645,1.2721344232559204,-0.13232330977916718,1.4900447130203247,-1.7611258029937744,1.1254783868789673,1.383592128753662,0.9616798162460327,0.0752035602927208,1.786036729812622,1.2882022857666016,-1.0501987934112549,1.3751453161239624,0.45500683784484863,1.054626703262329,0.3699951767921448,-0.09407900273799896,-1.3647867441177368,-0.40956243872642517,-1.1451220512390137,0.33127862215042114,0.9731520414352417,-0.5457234978675842,0.2691349387168884,-1.6444885730743408,0.88649982213974,0.6290247440338135,-0.560853898525238,1.9227670431137085,0.6173554062843323,-0.7872722148895264,1.6502456665039062,-0.7771759629249573,-0.2920166850090027,-1.0154238939285278,1.2888038158416748,-0.19189757108688354,2.3709492683410645,-1.597645878791809,-0.37021005153656006,-2.932217597961426,-0.5793819427490234,0.1511707603931427,-1.8378428220748901,1.0078998804092407,-0.441697359085083,-0.7345265746116638,-1.8233832120895386,-0.5332767963409424,-1.1823869943618774,-1.187652826309204,1.3878700733184814,0.3981699049472809,-0.5534603595733643,1.5380885601043701,0.16423705220222473,-1.08513343334198,-2.542731523513794,-1.7377442121505737,1.3301432132720947,2.0826737880706787,1.571222186088562,-2.8565917015075684,-0.8806313276290894,1.0014501810073853,-0.45426300168037415,-1.1623331308364868,-0.3242231011390686,-0.08883604407310486,0.8628349900245667,-1.0080986022949219,1.356763482093811,2.1662349700927734,1.9706584215164185,-1.2912009954452515,0.8592422604560852,-0.6841729879379272,0.6792135834693909,-0.28911659121513367,-2.205538272857666,0.20760060846805573,0.7823817729949951,-0.8805984854698181,0.9087214469909668,0.5854984521865845,-0.7916527986526489,0.7471363544464111,1.204185962677002,-0.7159726619720459,-0.4548955261707306,0.5704191327095032,0.5413019061088562,1.404253363609314,0.2309776395559311,-0.4003717601299286,-0.05511869490146637,-0.6272287368774414,1.4307935237884521,-1.3953239917755127,0.022065741941332817,-0.6916724443435669,0.4362868368625641,-1.5870596170425415,-1.9424422979354858,1.9494045972824097,-0.8546454906463623,-1.1246975660324097,-1.187556266784668,-1.7072616815567017,-2.0853748321533203,-0.49802613258361816,-1.6426628828048706,1.0271297693252563,-1.04220449924469,-1.9918463230133057,1.4879467487335205,1.2232413291931152,-0.18849408626556396,0.9894106388092041,1.3845430612564087,0.18718060851097107,0.27109286189079285,0.06255069375038147,-0.2753445506095886,2.2578210830688477,-0.14732609689235687,0.9264384508132935,-1.3512258529663086,-2.4497568607330322,0.6096508502960205,-0.7524703145027161,1.2907993793487549,1.9789659976959229,-0.44640251994132996,1.6266624927520752,1.3092542886734009,-0.8509742021560669,1.6815563440322876,2.8569164276123047,-0.9642581939697266,-1.774990439414978,1.3158395290374756,0.13544735312461853,0.4822871685028076,-1.959014892578125,-2.3227033615112305,-1.7063510417938232,1.5922290086746216,-1.6187018156051636,1.9758527278900146,0.8584242463111877,-0.8438010811805725,0.5007272958755493,1.314157485961914,1.780673861503601,-1.0731828212738037,-0.680655300617218,-1.5442572832107544]},{"id":"fc","create":[9,{"activation":"logistic"}],"weights":[-0.5866042375564575,-1.7790988683700562,0.4446493983268738,-0.29888731241226196,0.7615718841552734,0.27668875455856323,-1.9730639457702637,-1.3735504150390625,1.8556396961212158,-0.7369754910469055,-1.530716896057129,-0.716539740562439,0.3076731264591217,-0.19908994436264038,-0.6226561069488525,0.3437734842300415,1.1732414960861206,0.7519981265068054,-1.8175662755966187,0.054485611617565155,-0.5555735230445862,-2.0553648471832275,1.6079280376434326,1.9733765125274658,1.7371928691864014,1.0082536935806274,1.6361457109451294,-0.5673076510429382,-0.6672784686088562,1.3258748054504395,0.36200475692749023,-0.6738879680633545,-0.8349752426147461,1.2324119806289673,-1.5891762971878052,0.2274167239665985,0.45245999097824097,-0.2880672216415405,1.4850478172302246,-1.1349282264709473,0.5563923120498657,0.19709719717502594,2.8398211002349854,-0.6958027482032776,0.35316941142082214,-1.3400644063949585,0.5195010304450989,0.9669190645217896,0.8398765325546265,1.689022183418274,-1.093517780303955,0.7834442257881165,1.839529037475586,-1.5344269275665283,2.1549065113067627,1.2078784704208374,2.0964856147766113,2.626811981201172,-0.18483036756515503,0.3973102569580078,-2.161341667175293,-0.08321473747491837,-1.0031678676605225,0.17309902608394623,1.541560173034668,0.3686075806617737,-1.95138680934906,-0.17464789748191833,-0.8074291944503784,2.5500710010528564,1.8387569189071655,1.1960020065307617,-0.274671345949173,-0.9905729293823242,1.5767675638198853,-0.959171712398529,0.41980478167533875,1.8759843111038208,1.6273494958877563,1.6086866855621338,1.4693468809127808,-0.11171869188547134,0.2725800573825836,0.7768644690513611,-0.2764199376106262,1.451367974281311,1.2376633882522583,0.31912827491760254,0.6704654693603516,-1.689445972442627,0.38303235173225403,-1.425804853439331,1.1916658878326416,-0.0695311576128006,0.5702361464500427,-1.3036751747131348,2.1700754165649414,1.820394515991211,-1.5717253684997559,0.9293718338012695,-0.01758021116256714,2.0449116230010986,2.235443353652954,0.4012232720851898,0.7441905736923218,-0.10031308978796005,0.34557271003723145,-1.284259557723999,-0.49153122305870056,-1.8751451969146729,0.915818989276886,-0.14031711220741272,1.5774797201156616,1.4031215906143188,-1.8028812408447266,1.5452667474746704,-2.0116894245147705,0.027467060834169388,0.8930290341377258,-1.4608514308929443,-0.6547948718070984,1.4658571481704712,1.3025050163269043,-0.5752003788948059,0.4893154203891754,-0.09162884950637817,0.09988472610712051,-0.3675902187824249,0.20633012056350708,1.0993800163269043,-1.107478141784668,-1.340863585472107,0.42055898904800415,-0.9028036594390869,-1.993671178817749,1.0055451393127441,-1.1310149431228638,0.9509509801864624,0.9898931980133057,-0.34096792340278625,-1.4490635395050049,-2.628117561340332,-0.5698404312133789,0.27827388048171997,-0.13285113871097565,-1.827107310295105,-0.8439106941223145,-2.0481338500976562,-1.7630720138549805,0.11565520614385605,2.3252272605895996,-1.0930689573287964,-1.2293733358383179,1.9585471153259277,1.2029216289520264,0.549333393573761,0.08331456780433655,-0.4162070155143738,-2.090867757797241,-2.4190454483032227,-2.3433358669281006,-0.9380937218666077,-0.10261791944503784,-0.9178804159164429,-0.11828522384166718,0.735582709312439,-0.8381152153015137,0.0038950785528868437,0.316421240568161,-1.6080107688903809,1.0921224355697632,-0.7738751769065857,-1.603122591972351,-0.7991045713424683,-1.0184049606323242,0.9822325110435486,-0.7461214065551758,-0.022009560838341713,-1.3555691242218018,-1.930282711982727,0.15784907341003418,-1.9510084390640259,-1.0399754047393799,1.1031726598739624,1.4559048414230347,-0.08291953057050705,0.7473920583724976,0.20570065081119537,0.7861206531524658,1.8995025157928467,-1.456517219543457,1.3062584400177002,0.9989023804664612,-0.6959626078605652,-1.5024796724319458,-1.3580617904663086,-1.9720654487609863,-2.0029494762420654,-0.5250901579856873,0.15100324153900146,0.4741409122943878,-2.437476634979248,-2.3711791038513184,-0.8139997124671936,0.8440273404121399,2.260148525238037,1.6746113300323486,0.5443174839019775,-1.7758629322052002,1.3017094135284424,1.3614156246185303,0.713024377822876,-0.7883762717247009,-0.4469023048877716,-0.5543211102485657,1.8765546083450317,0.8927430510520935,-1.2493265867233276,-0.9940902590751648,1.9663546085357666,-0.8192275762557983,1.073122262954712,-0.10940772294998169,-1.8623093366622925,1.3297356367111206,-1.6733959913253784,-0.3332478702068329,1.5155017375946045,-0.7734166979789734,-1.941992998123169,-0.8426947593688965,0.8931267261505127,0.5396761894226074,-0.6446420550346375,1.3622281551361084,0.21914859116077423,-1.4935721158981323,1.4245686531066895,-1.054961085319519,-0.11552859842777252,0.5127159357070923,0.0743357464671135,-1.9263057708740234,2.0177865028381348,0.016951654106378555,0.7893335819244385,1.0858300924301147,0.6413106918334961,0.8850277066230774,-2.6140329837799072,0.0822024717926979,1.4510301351547241,-1.086812973022461,-1.4830585718154907,-1.914906620979309,0.0011944593861699104,1.653913974761963,-0.039756711572408676,-0.7150425314903259,0.36491233110427856,-1.6267321109771729,1.2703592777252197,0.6304152011871338,1.7171746492385864,-2.0997111797332764,0.5126050710678101,-2.436779022216797,2.8334100246429443,-0.8831618428230286,1.845597505569458,-1.2859052419662476,0.7630683183670044,0.26206642389297485,-3.0447254180908203,-2.7020223140716553,-0.30745455622673035,1.0475184917449951,3.364666700363159,-0.4398822784423828,-0.09080607444047928,1.1814603805541992,1.0056777000427246,-1.6873434782028198,-2.1150848865509033,0.8175775408744812,0.017826255410909653,-0.26156488060951233,-1.225207805633545,2.0518317222595215,-0.3270532190799713,-1.468977689743042,-0.784927487373352,-0.04009478539228439,1.323413372039795,-0.4195300340652466,-1.277138352394104,-2.0528244972229004]},{"id":"fc","create":[1,{"activation":"logistic"}],"weights":[1.2569196224212646,-0.0473974272608757,-1.0386165380477905,-5.150920867919922,-2.924182653427124,-1.9810863733291626,6.550280570983887,3.1380510330200195,-0.03329627215862274,1.1809797286987305]}]}