{"layers":[{"id":"input","create":[9]},{"id":"fc","create":[32,{"activation":"logistic"}],"weights":[0.3613604009151459,0.5560930967330933,-1.2907558679580688,-0.5190573334693909,1.6192983388900757,-0.10154634714126587,-1.9516487121582031,-1.3836966753005981,0.8671694397926331,-0.2382364571094513,0.18991683423519135,-0.17671972513198853,-1.7562981843948364,1.7855838537216187,-1.348809838294983,-0.31750327348709106,-2.285700559616089,1.4851059913635254,-0.49084019660949707,-0.3424699008464813,-0.8251704573631287,-0.3849667012691498,0.5381262898445129,-1.5273842811584473,1.9219356775283813,-1.6483089923858643,-0.7368228435516357,1.2315294742584229,0.9848309755325317,-0.4750848114490509,-2.492325782775879,-0.3899947702884674,-2.091573715209961,-1.4341543912887573,-1.9895515441894531,-0.808423638343811,-1.235178828239441,0.29554328322410583,-0.07964607328176498,-0.8209636807441711,-2.081657886505127,-0.8603642582893372,-0.7340072393417358,1.512569546699524,1.8667032718658447,0.3459983766078949,-0.4978569447994232,-0.5414146184921265,-1.7016061544418335,-0.11350199580192566,-1.1178659200668335,-1.7462085485458374,2.4341518878936768,0.7111004590988159,0.5641288161277771,0.9579665660858154,-1.1690880060195923,0.5882490277290344,-0.6329834461212158,-0.5509474277496338,1.4212419986724854,-1.051949143409729,-0.42863938212394714,-0.11193260550498962,1.4277726411819458,-0.8095754981040955,1.5990484952926636,-1.21693754196167,0.2630787193775177,-2.0512900352478027,-1.2130098342895508,0.751754641532898,-1.604464054107666,0.3841423988342285,-1.6717495918273926,-0.7969902157783508,-1.7110319137573242,-0.3690401613712311,-1.754127860069275,-2.3725454807281494,-0.33173897862434387,-0.39764976501464844,-0.8654099106788635,-0.22812271118164062,-1.0736368894577026,0.5399328470230103,1.8473856449127197,-0.06024036556482315,0.8015562891960144,-0.5870131254196167,-2.748530626296997,2.601320266723633,0.7849624156951904,-1.187299370765686,0.40082964301109314,1.7162163257598877,-1.1744236946105957,-1.2275511026382446,-0.19242443144321442,0.7110541462898254,-1.3873151540756226,-0.05482691898941994,-1.722325086593628,0.52263343334198,0.6054046750068665,-0.9205520749092102,0.3172592222690582,1.0092904567718506,0.26209351420402527,0.504917562007904,0.24768275022506714,0.22775261104106903,-1.2954294681549072,-0.2031322568655014,-1.1436301469802856,1.525926113128662,-1.4841413497924805,1.6565196514129639,-0.9496059417724609,-1.5340951681137085,-0.8392647504806519,-0.3988775908946991,-0.6656107902526855,1.5671298503875732,0.945501446723938,-2.0586156845092773,0.34047937393188477,0.3937806487083435,2.0826168060302734,1.6217509508132935,0.5450731515884399,-1.908634066581726,-0.5751156210899353,2.288358449935913,-0.8903706073760986,-0.33101537823677063,-0.5778780579566956,1.808462142944336,-1.7424442768096924,0.049375589936971664,1.438981294631958,-0.323405385017395,0.5231457352638245,0.00656488724052906,1.4441617727279663,1.3287534713745117,0.29086825251579285,0.5377570986747742,-1.8643790483474731,1.1674436330795288,-1.1727241277694702,-0.8947718739509583,-1.9361826181411743,0.3934454619884491,0.6581116318702698,0.171575665473938,0.935580849647522,-1.1934949159622192,-1.1262705326080322,0.35868415236473083,-0.7037076950073242,1.1060510873794556,-0.2720997631549835,-2.3034892082214355,-0.6955794095993042,0.12480326741933823,-0.1521957367658615,-0.5326257348060608,1.9234739542007446,1.7000812292099,0.027780208736658096,0.7117071151733398,0.4431673288345337,-0.26876044273376465,-0.3314290940761566,2.306988477706909,-0.6504422426223755,0.055591560900211334,-1.5296127796173096,0.8905982375144958,-1.0136699676513672,-0.035616420209407806,0.5060417056083679,-1.6429780721664429,-1.0464937686920166,1.6381444931030273,0.6554224491119385,1.2985411882400513,0.1670103669166565,-0.6545104384422302,0.45241954922676086,1.4074039459228516,-1.1118046045303345,-0.2327759563922882,0.7901285886764526,0.6706923842430115,2.016923427581787,1.9345202445983887,1.0486252307891846,-0.8945840001106262,1.2611489295959473,-1.0879313945770264,1.9332349300384521,-0.7117176055908203,-0.10298166424036026,-0.6303561925888062,-2.0268750190734863,-0.415153443813324,-1.0323110818862915,0.6788344979286194,-0.8331954479217529,0.7821660041809082,1.2265970706939697,1.3895682096481323,-0.9217960238456726,1.4986634254455566,-1.0903807878494263,-0.78205406665802,-1.7854719161987305,-0.046499770134687424,1.5618728399276733,-1.9002946615219116,0.5465477108955383,0.7415903806686401,1.3352524042129517,-1.3757144212722778,-0.3612445294857025,-0.23551341891288757,-1.2447680234909058,0.2625332474708557,0.49358072876930237,0.05941988155245781,-1.5499169826507568,-0.6833543181419373,0.6227359771728516,1.3251721858978271,-0.1886165738105774,-1.3996424674987793,0.38141822814941406,0.07944762706756592,0.4745904207229614,1.6524252891540527,-2.857632875442505,-0.22935287654399872,0.3043523132801056,-0.08165573328733444,0.1823873519897461,0.24196048080921173,0.7850181460380554,-0.38589388132095337,-0.40975162386894226,-1.279754400253296,-0.37526172399520874,-0.8954452276229858,-0.022600682452321053,0.12698814272880554,-0.7306610345840454,0.44468358159065247,-1.4713280200958252,0.016388289630413055,2.151538848876953,0.3941006064414978,-0.5107353329658508,0.6374751925468445,0.3965435028076172,0.7103471755981445,0.060294393450021744,-1.0639795064926147,1.558043360710144,0.38377073407173157,-0.7429790496826172,2.097410202026367,1.1365426778793335,-1.290648341178894,0.19949008524417877,-0.02378024533390999,-0.4886719584465027,3.009040355682373,0.40602609515190125,-1.8897041082382202,1.362142562866211,-0.904117226600647,-1.5215932130813599,-0.6982961297035217,1.7871731519699097,0.2813635766506195,1.6668025255203247,-1.3532578945159912,0.6697569489479065,0.8848280310630798,-0.2749420702457428,1.0184639692306519,-1.765565276145935,-0.5732817053794861,0.635851263999939,-1.520053744316101,-2.2036774158477783,-1.2126414775848389,0.6477919816970825,-2.753679037094116,-0.32308483123779297,1.857148289680481,0.6842156052589417,-1.1908444166183472,-0.6633447408676147,0.4043205678462982,0.16259457170963287,-2.4699268341064453,0.11948077380657196,-1.3759981393814087,1.000777244567871,-1.279245138168335,-1.213524580001831,-0.6011542081832886,1.1201642751693726,-0.4513989984989166,0.9946804046630859,1.3709604740142822,1.4418463706970215,0.2144382894039154]},{"id":"fc","create":[9,{"activation":"logistic"}],"weights":[-1.2850396633148193,0.27376508712768555,-0.8210180997848511,1.0002655982971191,-1.4974143505096436,0.7981913685798645,-1.226223111152649,1.4032167196273804,1.7048320770263672,0.13974492251873016,1.1487376689910889,1.199110507965088,-0.7138627767562866,-1.8989371061325073,-0.5402284264564514,0.8121349811553955,-1.6116549968719482,-1.2099645137786865,0.7562502026557922,1.446001410484314,-0.5672044157981873,-1.476632833480835,1.7715593576431274,-0.4480212330818176,-1.2878435850143433,0.3214356303215027,-0.47156310081481934,-0.22507596015930176,0.9338591694831848,-0.32891732454299927,0.2953372597694397,-1.694583535194397,-2.07867169380188,-1.19110107421875,-0.40755411982536316,-1.580276608467102,0.4120519757270813,0.4935636520385742,1.4786828756332397,-0.7422715425491333,0.054751474410295486,0.12744249403476715,0.7703134417533875,2.5439398288726807,1.9498144388198853,-1.8478459119796753,-1.6304377317428589,0.6904489398002625,-0.5444759726524353,0.7312295436859131,-0.7880166172981262,1.0411072969436646,0.8241952657699585,2.1962239742279053,0.4888066351413727,0.8463886380195618,1.3876557350158691,1.6898530721664429,-1.85347318649292,-1.1492290496826172,-0.9467419981956482,-1.4057796001434326,-0.0033710941206663847,1.6536693572998047,0.4506424069404602,-1.7033714056015015,1.6398440599441528,-0.17297393083572388,0.7267594933509827,0.5872805118560791,0.04973340779542923,0.41141581535339355,-0.6709476113319397,-0.517691433429718,-0.18280082941055298,1.6744940280914307,0.3915487229824066,0.7966961860656738,0.1434566080570221,0.8961888551712036,0.659271776676178,1.063005805015564,0.21712598204612732,1.9475680589675903,-1.7520029544830322,1.0045039653778076,1.2875871658325195,1.1283414363861084,-0.3171665072441101,1.8199431896209717,-1.1715072393417358,0.5830855965614319,1.9837822914123535,-1.9584921598434448,1.8241196870803833,-1.1221598386764526,-2.5033249855041504,-1.7350828647613525,0.18061015009880066,-0.23861685395240784,-2.0089499950408936,0.49990466237068176,-1.7957416772842407,1.5478113889694214,-0.9034786820411682,1.9999537467956543,1.6563934087753296,0.6557760834693909,-2.131606340408325,0.9445383548736572,0.9394421577453613,-0.303493857383728,-0.00994755420833826,-0.8314968943595886,-0.2566153109073639,1.2350873947143555,0.22359628975391388,1.4466267824172974,0.03958699107170105,-0.13093024492263794,0.8822553753852844,-0.10305771231651306,-0.6937395930290222,-1.1171554327011108,-1.2439305782318115,-0.3631460964679718,1.2383272647857666,2.2090213298797607,-1.0285478830337524,-1.2954916954040527,-0.528508722782135,-0.26935672760009766,-0.1317005753517151,0.023683246225118637,-0.1457139104604721,-2.112790107727051,-0.41391900181770325,1.9952857494354248,1.5172934532165527,0.15409307181835175,2.0897419452667236,2.150632381439209,0.2496013045310974,0.46962040662765503,0.177137553691864,-1.8713561296463013,-1.697393536567688,-0.7639825344085693,-0.5846526622772217,-0.402233362197876,1.779516577720642,1.4727554321289062,-1.0270882844924927,-1.1609082221984863,-1.772742748260498,-1.59023118019104,-0.7308660745620728,0.2636965215206146,-1.724394679069519,0.831250786781311,1.005075216293335,2.098954200744629,0.006491071544587612,-0.12421224266290665,1.3811514377593994,1.5977193117141724,0.2683717608451843,-1.3861109018325806,-1.8966338634490967,-2.6019787788391113,-1.6715781688690186,-0.11471634358167648,-2.0118422508239746,0.9802189469337463,-1.1784148216247559,-0.9980515837669373,-0.36091044545173645,1.2964836359024048,-1.932704210281372,-1.1514626741409302,1.277334213256836,-0.45386216044425964,-1.110217809677124,0.9260256886482239,1.4087724685668945,1.4232838153839111,1.415958046913147,0.3266935646533966,1.138627052307129,-1.0142258405685425,-1.3691554069519043,-0.8700385093688965,-1.7032583951950073,0.09197135269641876,0.5321047902107239,0.40654706954956055,1.9880574941635132,-0.9266532063484192,1.576637625694275,-0.9700939655303955,-0.733336865901947,-0.9205871820449829,-1.5514776706695557,-0.3974987268447876,-1.4797797203063965,0.16975130140781403,1.94655179977417,1.193049669265747,0.6509747505187988,-0.7558961510658264,0.0930577963590622,1.3141310214996338,-1.6324924230575562,1.4917339086532593,1.060518503189087,-0.17576439678668976,1.5913329124450684,0.15873192250728607,1.2842845916748047,-2.0772578716278076,-0.22919823229312897,0.0499994270503521,2.6451528072357178,0.15098975598812103,-1.4255837202072144,-0.46911725401878357,-0.342192679643631,1.9416790008544922,1.673110008239746,-0.25093352794647217,1.9156255722045898,-0.9587611556053162,-1.5556578636169434,0.503643274307251,1.5628776550292969,1.0008339881896973,2.0421671867370605,1.239149570465088,-1.1482088565826416,-2.582030773162842,-1.8305721282958984,-1.066737413406372,1.6991733312606812,-2.154536485671997,-1.914210319519043,1.710001826286316,-1.6524981260299683,-0.11586030572652817,1.1167210340499878,2.060715436935425,-1.4288249015808105,1.3989909887313843,-1.5660052299499512,-0.5795760750770569,2.0588080883026123,-0.9032885432243347,-1.8580012321472168,1.0924173593521118,2.0594468116760254,0.6588574647903442,0.08534421026706696,-0.3319161534309387,1.3817365169525146,-0.635134220123291,-0.3990207314491272,-0.3550862967967987,0.1620372086763382,-2.567333698272705,0.4777141511440277,0.6752460598945618,-1.8749641180038452,0.687203586101532,-1.8181513547897339,-0.6643004417419434,-1.8442771434783936,0.19718322157859802,-1.0332672595977783,-2.516902446746826,-1.6314716339111328,-0.12789705395698547,-0.5552157163619995,0.6940233111381531,0.29656296968460083,0.3308431804180145,1.6615591049194336,0.340620756149292,-1.625669002532959,-1.584776520729065,1.0926927328109741,0.558161735534668,1.793453574180603,0.45989277958869934,-1.2584015130996704,-1.8764595985412598,0.766129195690155,0.41777169704437256,0.6283960938453674]},{"id":"fc","create":[1,{"activation":"logistic"}],"weights":[-0.8614685535430908,-4.556863784790039,0.4473075568675995,-0.6369365453720093,-1.0582895278930664,3.443645477294922,4.73577356338501,4.451231479644775,0.8599188327789307,-1.4433077573776245]}]}